digraph Tree {
node [shape=box, style="filled", color="black", fontname="helvetica"] ;
edge [fontname="helvetica"] ;
0 [label="HbA1c_level <= 6.7\ngini = 0.16\nsamples = 240\nvalue = [219, 21]\nclass = 0", fillcolor="#e78d4c"] ;
1 [label="blood_glucose_level <= 210.0\ngini = 0.068\nsamples = 227\nvalue = [219, 8]\nclass = 0", fillcolor="#e68640"] ;
0 -> 1 [labeldistance=2.5, labelangle=45, headlabel="True"] ;
2 [label="bmi <= 36.275\ngini = 0.044\nsamples = 224\nvalue = [219, 5]\nclass = 0", fillcolor="#e6843e"] ;
1 -> 2 ;
3 [label="age <= 67.5\ngini = 0.019\nsamples = 207\nvalue = [205, 2]\nclass = 0", fillcolor="#e5823b"] ;
2 -> 3 ;
4 [label="gini = 0.0\nsamples = 181\nvalue = [181, 0]\nclass = 0", fillcolor="#e58139"] ;
3 -> 4 ;
5 [label="smoking_history_former <= 0.5\ngini = 0.142\nsamples = 26\nvalue = [24, 2]\nclass = 0", fillcolor="#e78c49"] ;
3 -> 5 ;
6 [label="HbA1c_level <= 6.35\ngini = 0.083\nsamples = 23\nvalue = [22, 1]\nclass = 0", fillcolor="#e68742"] ;
5 -> 6 ;
7 [label="gini = 0.0\nsamples = 16\nvalue = [16, 0]\nclass = 0", fillcolor="#e58139"] ;
6 -> 7 ;
8 [label="gender_Female <= 0.5\ngini = 0.245\nsamples = 7\nvalue = [6, 1]\nclass = 0", fillcolor="#e9965a"] ;
6 -> 8 ;
9 [label="HbA1c_level <= 6.55\ngini = 0.444\nsamples = 3\nvalue = [2, 1]\nclass = 0", fillcolor="#f2c09c"] ;
8 -> 9 ;
10 [label="gini = 0.0\nsamples = 1\nvalue = [0, 1]\nclass = 1", fillcolor="#399de5"] ;
9 -> 10 ;
11 [label="gini = 0.0\nsamples = 2\nvalue = [2, 0]\nclass = 0", fillcolor="#e58139"] ;
9 -> 11 ;
12 [label="gini = 0.0\nsamples = 4\nvalue = [4, 0]\nclass = 0", fillcolor="#e58139"] ;
8 -> 12 ;
13 [label="bmi <= 26.48\ngini = 0.444\nsamples = 3\nvalue = [2, 1]\nclass = 0", fillcolor="#f2c09c"] ;
5 -> 13 ;
14 [label="gini = 0.0\nsamples = 2\nvalue = [2, 0]\nclass = 0", fillcolor="#e58139"] ;
13 -> 14 ;
15 [label="gini = 0.0\nsamples = 1\nvalue = [0, 1]\nclass = 1", fillcolor="#399de5"] ;
13 -> 15 ;
16 [label="blood_glucose_level <= 180.0\ngini = 0.291\nsamples = 17\nvalue = [14, 3]\nclass = 0", fillcolor="#eb9c63"] ;
2 -> 16 ;
17 [label="age <= 70.5\ngini = 0.124\nsamples = 15\nvalue = [14, 1]\nclass = 0", fillcolor="#e78a47"] ;
16 -> 17 ;
18 [label="gini = 0.0\nsamples = 14\nvalue = [14, 0]\nclass = 0", fillcolor="#e58139"] ;
17 -> 18 ;
19 [label="gini = 0.0\nsamples = 1\nvalue = [0, 1]\nclass = 1", fillcolor="#399de5"] ;
17 -> 19 ;
20 [label="gini = 0.0\nsamples = 2\nvalue = [0, 2]\nclass = 1", fillcolor="#399de5"] ;
16 -> 20 ;
21 [label="gini = 0.0\nsamples = 3\nvalue = [0, 3]\nclass = 1", fillcolor="#399de5"] ;
1 -> 21 ;
22 [label="gini = 0.0\nsamples = 13\nvalue = [0, 13]\nclass = 1", fillcolor="#399de5"] ;
0 -> 22 [labeldistance=2.5, labelangle=-45, headlabel="False"] ;
}